#ifndef NEUROVERKONKERTOIMET_H
#define NEUROVERKONKERTOIMET_H

float weights_0[3][64] = {
    {-0.12439734, -0.061327398, -0.07966447, -0.3063642, -0.28106555, -0.26857847, -0.19930547, 0.27518067, 0.33124587, -0.38138044, 0.41473398, 0.11361626, -0.12460907, 0.41756082, -0.14680777, -0.054303948, -0.27239627, -0.21017136, 0.117138654, -0.11859384, 0.35978672, -0.17216662, -0.28112432, -0.2851288, -0.15372606, 0.019449169, 0.017615369, 0.273209, -0.023341928, -0.25226918, -0.12762862, -0.24192344, 0.10927531, 0.162114, -0.3491264, -0.13640867, 0.28557026, 0.07897878, 0.06489671, -0.38680676, -0.17755228, -0.23579013, 0.39637652, 0.20739989, -0.24208903, -0.03782899, -0.043991096, -0.27730176, -0.019057691, 0.3885691, -0.09514867, 0.06470366, -0.044072658, -0.03333059, -0.35201973, 0.28401512, -0.08497928, 0.12380221, -0.05111301, -0.058203276, 0.13914214, 0.21716027, 0.27854657, 0.18379533},
    {0.42938903, 0.0084016025, -0.18516505, 0.015886871, -0.24941285, 0.1744203, 0.0024035573, -0.13715278, 0.15190344, 0.06839727, -0.18012883, 0.35116616, -0.104996905, 0.36131415, 0.4096713, 0.032367986, 0.24216375, -0.24619876, 0.3850133, -0.2144964, -0.18888645, -0.18236196, 0.14243598, -0.26548237, 0.12082482, 0.16684733, 0.23003562, -0.13968088, -0.40854394, 0.0024184585, -0.1567688, -0.06609739, -0.29680482, 0.0482682, 0.43964785, 0.47397256, 0.29408363, 0.34893715, 0.17734875, 0.058886975, -0.066177666, -0.27296948, 0.336679, 0.3687486, 0.044860143, 0.17449373, -0.27681062, 0.3457064, -0.26834708, -0.23840886, 0.124328986, -0.21997218, 0.30337024, -0.086512536, 0.06435294, 0.35377383, 0.16970886, -0.19078484, -0.04984039, 0.40234488, 0.35768306, 0.16021924, -0.2034854, -0.33983728},
    {0.25370246, -0.16552953, -0.24522868, 0.3952757, -0.15267871, 0.3762317, -0.1161641, -0.11695912, -0.32755652, 0.2856725, -0.07425697, -0.09787469, 0.4009704, 0.41063914, 0.14634554, -0.09031174, -0.0540729, 0.16975935, -0.301974, -0.27845103, 0.42019364, 0.40794474, 0.21271123, 0.014333546, -0.03373759, 0.30326805, 0.3282542, -0.14657897, 0.42929956, -0.13876462, 0.102401465, -0.09087472, -0.039317753, 0.40431368, -0.0795137, -0.18893225, 0.31498995, -0.22263587, -0.36789355, 0.26032683, -0.03217575, 0.039589703, -0.05311632, -0.22821613, 0.38708305, -0.23691212, 0.22137485, 0.16486405, -0.21893187, 0.017312672, 0.32484663, 0.3010493, -0.12957971, -0.13857712, 0.40495098, -0.31447387, 0.3280206, 0.36010644, -0.26181802, -0.22017002, -0.12625375, 0.0839115, 0.21824582, 0.1939608},
};

float biases_1[64] = {0.031044519, 0.0, 0.0, 0.12554184, 0.0, 0.01107206, 0.0, 0.13728285, -0.057806265, 0.13362554, 0.13052809, 0.036371086, 0.11894397, 0.015154766, 0.022317851, -0.008610136, 0.1445241, -0.008414562, 0.021558512, 0.0, -0.031209137, 0.15327214, 0.06745373, 0.0, -0.056226335, -0.10644281, -0.11678074, 0.14445557, 0.12275257, 0.0, -0.008886458, 0.0, -0.041972246, -0.032231525, 0.15924297, 0.108183615, -0.016234169, 0.0681314, 0.14153527, 0.14503661, 0.0, 0.0, 0.029928334, -0.001974663, 0.036296237, 0.014753948, 0.14147499, 0.03258632, 0.0, 0.11698096, -0.038601715, -0.013601022, 0.06173825, 0.0, 0.12390727, 0.06790704, -0.061604932, 0.038189318, 0.0, 0.11536193, 0.072368704, -0.11906492, 0.17014258, 0.121857636};

float weights_2[64][32] = {
    {-0.1607119, 0.2588057, -0.05245536, -0.205289, 0.23524834, 0.33338842, 0.17253977, -0.18082345, 0.04567886, -0.18380782, 0.28941864, 0.015678318, 0.17074127, 0.22513098, -0.17767839, -0.046298098, 0.13036251, -0.013224448, 0.13066988, -0.0034022056, 0.091740064, 0.10499014, 0.08245937, 0.13036306, -0.0075382814, -0.04311192, 0.22957878, -0.07854925, -0.23711999, -0.10306006, 0.026099341, -0.25515592},
    {0.24970573, 0.15178043, 0.07967204, 0.22140574, 0.08462608, -0.0060251355, -0.06963843, 0.111879945, -0.07667124, -0.16575307, 0.030062795, -0.04172808, -0.00044167042, -0.20346665, -0.24625409, 0.10693514, -0.07745206, -0.13638693, 0.232364, 0.24972808, 0.19600815, 0.010861218, 0.012306511, -0.056818545, 0.09711748, 0.0247038, -0.07240623, -0.21443379, -0.11441141, 0.07202393, -0.040554762, -0.13070834},
    {0.18821615, -0.18479556, 0.10179484, 0.077272, 0.189233, -0.12827611, 0.2020359, 0.20525283, -0.19144845, 0.11628872, -0.11877322, -0.22880423, -0.08197373, -0.19856215, -0.10063511, 0.18273997, -0.21844703, 0.1356718, -0.17532367, -0.014749825, -0.06853634, 0.14531446, -0.060406327, 0.044582486, 0.15488505, -0.05918187, 0.2262618, 0.20021129, -0.06659025, 0.077329874, 0.16167992, -0.0060534477},
    {0.11009929, 0.3445375, -0.287145, -0.27123293, -0.05001299, -0.37673625, 0.02261981, -0.046440896, 0.15705976, 0.1416219, 0.009094263, 0.31361616, -0.17702967, -0.23851566, -0.05572376, 0.02368026, 0.24792527, 0.29804873, 0.08920371, 0.3591071, -0.05305444, -0.065765366, 0.35639465, 0.23884352, -0.16269396, 0.06802499, -0.0433357, 0.015925294, -0.22720268, -0.18326202, 0.04808686, -0.17604148},
    {0.21265256, 0.21719557, 0.09167874, 0.1245898, -0.0267725, -0.15979397, -0.17049158, -0.19009328, -0.17987376, -0.03778684, 0.2059601, 0.07312143, -0.027017832, -0.029640615, 0.19928712, -0.19758904, 0.04863912, 0.012916923, 0.073224545, -0.03505981, 0.034336448, -0.07756299, -0.024401784, 0.20518202, -0.1659978, 0.24095047, -0.023251593, -0.1431675, -0.19978768, -0.1789136, 0.21733993, 0.058635473},
    {0.17524393, -0.03653645, -0.02724468, -0.06475569, -0.07842733, -0.22300476, 0.049316287, -0.25447065, 0.068974175, -0.24848378, 0.25430527, 0.33028123, -0.012985647, -0.0021364223, -0.37306204, -0.20985274, 0.31501475, 0.016762314, 0.28839466, 0.28310966, -0.21469973, 0.05175698, 0.118284814, 0.09412601, -0.14030902, 0.043669228, -0.23251662, -0.06393559, 0.194279, 0.28973606, -0.01570561, -0.103292115},
    {-0.22816682, -0.13572788, 0.111477435, -0.079249084, 0.008215547, -0.09350091, -0.22914863, -0.1593628, -0.07263118, -0.20231748, -0.06878054, -0.06466347, 0.020985961, 0.12918139, 0.0316118, 0.16566491, 0.17751575, 0.12094027, -0.15856928, 0.1430611, 0.13242292, 0.21577007, 0.14993834, -0.084198534, -0.06223589, -0.19814408, -0.20476961, 0.02022767, -0.046869516, -0.014957905, -0.14193803, 0.013290644},
    {0.2958373, -0.32703888, 0.026767313, 0.13610348, 0.4002036, 0.1626797, -0.17327888, 0.28803188, 0.2543289, 0.41146693, -0.3657968, 0.15187518, 0.13414179, 0.11127943, 0.034479544, 0.17345352, -0.124830954, 0.21834803, -0.074303344, -0.19900537, 0.02186664, -0.3507523, -0.30478042, 0.12718087, 0.12905844, 0.017366715, 0.14727888, -0.16919063, -0.110553175, -0.099624, -0.30617225, 0.14695093},
    {0.21051325, -0.12850323, 0.40853217, -0.15644115, 0.06668568, 0.2533011, -0.09196384, 0.11981338, -0.30121487, 0.2695055, -0.118546866, 0.13402775, 0.028184982, -0.12738326, 0.20588912, -0.1561833, -0.22642249, -0.33325526, -0.15810904, -0.36373857, 0.24089998, 0.133932, -0.21308754, 0.2339535, 0.27484182, 0.11057021, -0.00021023874, 0.1008873, 0.15638408, -0.00868719, 0.24273613, -0.08243023},
    {-0.031244297, 0.25412747, 0.00064658513, 0.13926047, -0.07880312, -0.11897007, 0.40031564, -0.25246894, -0.18708085, 0.049419932, 0.41853613, 0.042491093, -0.31174856, 0.041445915, 0.1904485, -0.020352315, 0.31079677, -0.008577948, 0.41743386, 0.00637991, -0.31704536, 0.092786856, 0.059506085, 0.011654144, -0.26645997, -0.23706011, 0.2533223, 0.008844483, -0.121330656, -0.025685644, -0.007163552, -0.12223522},
    {0.17359935, -0.37265763, 0.070156, -0.19110125, 0.0106249, -0.0040528635, -0.402917, 0.4500811, 0.3233389, 0.26246285, 0.048597362, -0.04337564, 0.1645108, 0.22231998, 0.1478296, 0.3649719, -0.36532947, 0.048893884, -0.026186738, -0.03638856, 0.2258017, -0.028750246, -0.18131012, -0.3103659, -0.17144327, 0.011762469, 0.37082434, -0.21732877, -0.056766126, -0.06402543, 0.09741819, -0.16640542},
    {-0.028184917, 0.26001075, 0.3342749, 0.021405574, 0.3245725, 0.20277332, 0.008424348, 0.24265113, -0.29483852, 0.040299643, 0.2484597, 0.11936869, 0.060045134, 0.04912074, -0.09391639, -0.038141772, -0.058349088, -0.10269333, 0.12790893, -0.03755847, 0.05920266, -0.05474287, -0.17603229, 0.022169515, 0.14002441, -0.013675168, 0.32468653, 0.21262288, 0.2197511, 0.17937367, 0.14797874, -0.06787216},
    {0.058461223, -0.16210671, -0.086452685, 0.08642026, -0.2522101, -0.20976056, 0.11713971, -0.13198416, 0.25724366, -0.13482341, 0.38366067, -0.081451, 0.13261826, -0.20391823, -0.13520925, 0.13095567, 0.11770595, 0.38691515, 0.37633052, 0.21191376, -0.3806278, 0.11602652, 0.054272182, -0.21900508, -0.130956, -0.10498285, -0.239288, -0.027579326, 0.08535665, -0.2716029, 0.18645419, -0.115178525},
    {0.18970816, -0.017180284, 0.061207354, 0.027937146, 0.139623, 0.101010196, -0.13307543, 0.06868465, 0.15776484, 0.19656448, 0.28920996, 0.35904726, 0.045049023, 0.31740034, 0.21206506, 0.3055755, 0.29605928, -0.02333985, -0.19533186, 0.15747173, 0.12537389, 0.15192519, 0.1522396, 0.10275942, -0.06646746, 0.20701927, 0.21060608, -0.082279414, -0.17531691, 0.1301842, 0.18241788, -0.15864803},
    {0.0075886343, 0.12553789, -0.048718635, 0.06813464, 0.029418476, 0.3380589, 0.26816547, 0.026301552, -0.30397105, -0.14093484, 0.02311069, 0.35348973, -0.013721424, 0.059009068, -0.052551046, -0.23793998, 0.27852288, 0.07078443, -0.061778784, 0.18250121, 0.13564359, 0.1619431, 0.1113635, 0.2887923, 0.1373452, 0.18204316, 0.21127366, 0.19788243, -0.059300438, 0.07920822, 0.17889318, -0.036915947},
    {-0.064877406, -0.19641228, -0.17183049, 0.15900296, 0.1097565, 0.017536532, 0.17645806, -0.12816231, 0.1997531, -0.12427694, 0.07568862, -0.031038279, 0.15900901, -0.06662156, -0.17627825, 0.14114729, 0.08711363, 0.12919904, 0.031215388, -0.13883723, 0.0393, 0.2213045, -0.0332718, 0.093623154, -0.19287807, 0.24033383, 0.090477355, -0.04381026, 0.027344884, 0.2133801, 0.05284599, -0.110918045},
    {-0.24829063, 0.2442016, 0.043165334, -0.15628487, 0.08207909, 0.031719852, 0.40711614, 0.22754051, -0.27136248, -0.294088, 0.076114506, 0.07384422, -0.05642247, -0.3750701, 0.36096272, -0.43066606, -0.0045711547, 0.15291455, 0.01650041, 0.17494026, -0.15072809, -0.39712575, 0.123696245, -0.02469662, -0.08531433, -0.07279921, 0.20271176, -0.023061953, 0.117275976, 0.10190356, -0.41291183, -0.06274412},
    {0.06563013, 0.012927484, -0.1497495, -0.15876879, -0.0728471, 0.025200076, 0.14107431, 0.060171664, -0.15885976, -0.087519564, 0.19394444, -0.079279125, -0.23272774, 0.15963101, 0.16809744, -0.11507412, 0.05275024, 0.15587181, 0.0852386, -0.0033616468, 0.17615934, 0.030764345, -0.09692024, 0.20937622, 0.168868, -0.08987477, 0.23973767, -0.15731466, 0.016165584, -0.2171433, -0.049027734, 0.20156711},
    {-0.052256744, -0.0063329595, 0.15704183, -0.14413875, -0.025199136, -0.0732758, -0.34831208, -0.06317685, 0.07633172, 0.22682814, 0.12729515, -0.13748842, 0.07619329, 0.15786164, 0.17352915, -0.38654968, -0.2574066, 0.09997227, 0.05291952, 0.26081648, 0.219412, 0.07167645, 0.19219176, 0.37934455, 0.26142046, 0.17573792, -0.082121015, -0.18335946, 0.16024365, 0.22328633, -0.0559651, -0.063954175},
    {-0.047029972, 0.2271877, 0.10613805, -0.20533144, 0.065598726, 0.058356702, 0.19382036, -0.09807181, 0.1152637, 0.060089648, 0.22485173, -0.004247844, -0.22703362, 0.23377836, 0.05278498, -0.14459199, -0.24165213, 0.2326085, 0.18671465, -0.22435623, 0.085292816, 0.11506343, -0.15867943, 0.22094643, 0.19613397, 0.17126405, 0.11277717, 0.15408939, 0.0061082244, -0.1866306, 0.16333461, 0.14529741},
    {0.16150822, -0.31527478, 0.052987486, 0.059446104, 0.14401925, 0.35999742, -0.17401274, -0.105536684, 0.075517714, 0.32380182, 0.17177652, -0.005767895, -0.021392303, 0.17980087, 0.0038021577, 0.26629794, 0.28179297, 0.3582898, 0.041871198, 0.1502344, 0.018595997, 0.19848892, 0.036417875, 0.073926225, 0.015627366, 0.14228588, -0.14359066, -0.04430579, -0.04578594, -0.29069388, 0.27651507, -0.08072657},
    {-0.07180029, 0.0018812963, -0.1457345, 0.14004667, 0.042619906, 0.028733479, 0.20862052, 0.14933151, 0.20006615, 0.32130283, 0.029906154, 0.31819072, -0.07461469, -0.34120217, -0.21796617, 0.28019297, 0.31290165, 0.39912283, 0.39472732, 0.10422228, -0.13609199, 0.24415006, -0.061421674, -0.055536624, -0.30173776, -0.028083459, -0.02080898, -0.00969051, 0.17491394, 0.04026896, 0.2456914, -0.2479162},
    {-0.21981846, 0.039792083, 0.0026046243, 0.05787477, -0.20575947, -0.33201957, 0.09854745, -0.23518243, -0.3781739, -0.19954431, 0.3528151, 0.39822543, -0.20058689, -0.20961648, -0.21204951, -0.40106863, 0.036749147, -0.032166805, 0.37913558, 0.4102095, -0.095555186, -0.11131559, 0.23320928, 0.14929064, -0.05748202, 0.025584823, -0.017012084, -0.014590106, -0.20008065, -0.101487465, 0.12277519, 0.2206269},
    {-0.24735123, -0.08339465, -0.0947507, -0.10598147, -0.17671019, -0.14633119, 0.09030086, -0.06908226, 0.04971546, 0.18291193, 0.23190475, -0.041975915, 0.22318089, -0.023522139, 0.036452472, 0.024000883, -0.1877628, 0.078178465, 0.20250076, 0.10237539, 0.19083625, 0.16088319, -0.028657734, -0.10746342, 0.10053545, -0.08189219, -0.083566725, 0.09038246, 0.00082826614, 0.21948344, 0.04115218, 0.105427444},
    {0.15957646, 0.10319698, -0.081651494, -0.24353123, 0.19823772, -0.023827586, 0.13093339, 0.0038840082, 0.15308377, -0.047317218, -0.117278054, -0.24715039, -0.06618527, -0.027813097, 0.22496732, 0.07633542, -0.14826275, -0.18693559, -0.21722077, 0.11103068, 0.18622202, 0.20830992, -0.03316213, 0.06643862, -0.22710714, -0.11813481, -0.036499936, -0.15097128, 0.21267676, -0.011525548, 0.13236555, 0.0037292242},
    {-0.03764041, -0.074467674, 0.15606004, 0.16407712, 0.086186394, 0.06558784, 0.1817983, -0.36632967, -0.16953278, 0.15042251, -0.110433534, 0.15521155, -0.29816985, 0.13341677, -0.18845934, 0.035215367, 0.088182, -0.120228626, -0.0037374191, 0.13730396, -0.027728759, -0.10460092, 0.2539289, -0.07758821, -0.23940536, 0.3008033, -0.1830464, -0.24267387, 0.16082434, -0.014713213, 0.030730426, -0.14591357},
    {-0.17732075, 0.14727496, -0.06932308, -0.16638131, 0.18699294, 0.2699356, 0.020247111, -0.27416453, -0.13665175, 0.06562277, 0.2768374, 0.19136281, -0.20973721, 0.15157546, -0.3250259, -0.08825554, 0.041834675, -0.093863524, 0.029351976, 0.08603905, -0.07539008, 0.12505645, 0.21875976, -0.10503396, -0.23684125, 0.2073098, 0.1889729, -0.009135573, 0.20971848, -0.09992629, -0.015264475, 0.10961208},
    {0.21927324, 0.105198614, 0.12876882, -0.014347891, 0.28083405, 0.07792373, -0.24676211, 0.010569979, 0.3203443, 0.083703674, -0.20422961, -0.20113103, 0.06660813, 0.3720351, 0.24896501, 0.18156315, -0.00047114486, 0.06250885, -0.009783613, -0.3407121, 0.3494803, 0.09045762, -0.39804685, -0.23295663, 0.17558934, -0.24292317, 0.12618567, 0.091832645, -0.11631514, 0.072153896, -0.027055556, -0.09046993},
    {0.18659548, 0.023217132, -0.1599156, 0.030701876, -0.02480888, -0.07103625, 0.19220084, -0.068681635, 0.23231578, 0.38191533, -0.26883218, -0.1582377, -0.24267603, -0.2736789, -0.10617212, 0.06791664, 0.35484546, 0.30895808, 0.36792096, -0.2705045, -0.21845879, 0.04528624, 0.103889264, -0.24580406, -0.03600934, -0.15670758, -0.24605626, -0.22999027, 0.10260425, -0.41621125, 0.082714185, 0.15401258},
    {-0.21460992, -0.24539751, -0.094162285, -0.14011794, 0.19484204, -0.102853, -0.1360904, -0.10172033, 0.0089431405, 0.051170886, -0.034142435, 0.23844868, -0.09338212, -0.10146505, 0.051226497, 0.18417966, -0.16746521, 0.038808048, 0.04668337, -0.043238997, 0.032090485, 0.10276723, -0.23917705, -0.092767656, -0.027181208, 0.07249153, -0.24588752, 0.059686005, 0.03434533, 0.11820555, -0.17749429, 0.011108696},
    {-0.035217173, -0.15217572, -0.20734324, -0.110199936, 0.05352044, -0.20377766, -0.02498166, -0.04271571, 0.17287682, -0.04321805, 0.13189545, 0.07029688, -0.046251614, 0.116211616, -0.10244862, -0.12563838, -0.0606854, -0.11410322, -0.22016644, 0.06640475, 0.20176265, 0.22749257, -0.19010796, 0.111355156, -0.091751695, 0.049563106, 0.15379903, 0.1960854, 0.10329124, -0.0029179454, 0.15073624, -0.1401918},
    {-0.092333615, -0.012960374, 0.10833299, 0.18580711, 0.09338063, 0.2083804, -0.16928911, 0.112425864, 0.041315436, 0.09246045, -0.24691015, -0.0135627985, -0.0021091104, -0.14997554, 0.19379455, -0.20336771, 0.11961281, -0.24216908, -0.06750971, 0.062948704, -0.18376374, 0.06415963, -0.122962, -0.04850036, 0.10206014, 0.15004057, -0.24301839, 0.18656772, -0.08414656, 0.118038416, 0.027603924, -0.01029557},
    {0.14932975, -0.18877994, 0.07666054, 0.076052465, 0.25641933, 0.16534817, 0.20618579, -0.09481561, -0.17133823, 0.0022567855, 0.18428065, -0.079922035, 0.13420707, -0.16811311, 0.024389496, 0.11223208, 0.10999685, -0.013851923, -0.1880038, 0.20522024, -0.06183298, 0.19941999, -0.11739674, -0.1664973, -0.11254612, 0.10222143, 0.1773262, 0.09595877, 0.07972945, 0.0046895845, -0.26587474, -0.025742382},
    {-0.07552337, 0.01893356, -0.03567995, 0.11009373, 0.21840462, 0.28633815, -0.18460841, -0.14683823, 0.07388591, -0.11441585, 0.15316662, 0.29946426, -0.07918647, 0.36947855, 0.009346071, 0.23552215, 0.006593666, 0.37064183, 0.17674126, 0.16497974, 0.11780306, 0.065429285, 0.29264006, -0.106940545, -0.27145204, 0.1147687, -0.11007827, -0.026004791, -0.00972695, -0.18001357, -0.17709365, 0.116059214},
    {-0.041549496, 0.35845336, -0.1649045, -0.12820883, 0.046751197, -0.17261349, 0.25868136, 0.14867297, 0.07629766, -0.28707942, 0.21643545, 0.063874796, -0.22804928, -0.1527677, 0.34836963, -0.30552852, 0.3127089, -0.16630808, 0.056022443, -0.028358724, 0.06219417, 0.05784436, 0.05408992, 0.13521083, 0.34110487, 0.06462072, 0.24347447, -0.119303025, 0.054987572, 0.03528161, -0.16855305, 0.0108321905},
    {-0.18281755, 0.3954643, 0.048571493, -0.0829481, 0.20012242, 0.22704746, 0.25816897, 0.044331696, -0.19260395, -0.22086221, 0.022414861, -0.13521549, 0.082385615, 0.026071182, 0.13164753, -0.17871763, 0.025480352, -0.16177596, -0.2919502, 0.034886744, 0.050481454, -0.033880576, 0.32503292, 0.007734426, -0.06145315, 0.015845897, -0.07031853, 0.056319814, 0.20230018, 0.3701057, 0.121872716, -0.14226301},
    {0.23683457, 0.03340344, 0.17593765, -0.0003618021, 0.088693276, 0.025914142, -0.22910891, -0.17024925, 0.09290568, 0.110019885, 0.17713872, -0.003207151, 0.18861572, 0.35319522, -0.056897953, 0.35728404, 0.19565435, -0.09108256, 0.1879693, 0.3582543, 0.19019133, 0.0005871209, -0.14747609, 0.21952122, -0.14856297, 0.0840799, -0.18429525, 0.07680368, -0.08409678, 0.018042766, 0.07371489, -0.08036007},
    {-0.34805197, 0.36630678, 0.10247393, 0.1721778, 0.098835446, 0.023495648, -0.13178326, 0.09215661, -0.29548493, -0.03984614, 0.10400471, -0.19032414, 0.022003943, 0.3771168, 0.34497553, -0.03696163, -0.07601985, -0.13115932, 0.03586275, 0.16217081, -0.04221753, -0.30452722, -0.007151362, 0.30396986, 0.13162266, 0.3287449, 0.029043483, 0.099131204, -0.19576554, 0.17910297, 0.036517072, -0.014863284},
    {-0.20308192, 0.05753241, 0.22904919, 0.10262422, 0.33017495, -0.21839742, -0.07155463, 0.20309658, -0.07002701, 0.34204322, -0.2565948, -0.22637732, 0.0177896, 0.005257106, 0.45625788, 0.03809912, -0.044123523, 0.06638004, -0.07940684, -0.060089163, 0.26612237, 0.022455035, -0.31179562, 0.25867006, 0.2263899, 0.3007782, 0.12900218, -0.2400656, -0.1790826, -0.024979534, 0.27478236, 0.023521567},
    {0.08510953, 0.22992922, -0.10667655, -0.23374449, -0.16810322, -0.2387812, 0.3402985, 0.1383007, -0.12307947, 0.14647757, 0.38879675, 0.16790342, -0.3846851, -0.28612956, -0.24006486, -0.26942772, 0.050126493, 0.41183165, 0.3482079, 0.20737243, 0.022630133, -0.11100845, 0.026124738, 0.38995323, 0.06080256, -0.30385733, 0.012340358, 0.022326384, 0.057866316, -0.108288005, 0.23875387, 0.21254809},
    {-0.15295732, -0.14821029, -0.22496891, 0.029500186, 0.10721105, 0.15167129, 0.058199465, 0.07661772, -0.13863689, 0.000864625, -0.11596036, 0.18766123, 0.019304812, 0.15915418, -0.17198372, -0.10376245, -0.016940713, 0.05940056, -0.09839189, -0.0060887933, -0.03081274, 0.0849821, -0.20942456, 0.07854658, 0.052043915, -0.14299387, -0.008647621, 0.012402475, 0.16649157, -0.0054733157, 0.048065722, 0.1105777},
    {-0.20792711, 0.09876001, -0.14241153, 0.065751255, -0.07641685, 0.20844251, -0.21913451, -0.035767734, -0.22554755, -0.082515836, 0.08728266, -0.20057881, 0.0063589215, 0.13263565, 0.00262779, 0.018421888, 0.2326231, 0.17294896, -0.24374634, 0.23359913, 0.22935486, -0.24273843, 0.1997559, -0.1093052, 0.22651857, -0.21608597, 0.04922688, -0.06615901, -0.21188849, 0.033489704, -0.02701503, -0.16167688},
    {-0.024227163, 0.0041350476, -0.014347615, -0.0004964816, 0.22860827, 0.12078012, -0.0012236936, 0.04122058, -0.079587884, 0.26187062, 0.08695535, 0.21345986, 0.3370493, 0.39763957, -0.14934584, 0.061047617, -0.0028048863, -0.021588657, -0.04952334, 0.17622143, 0.24615273, 0.09373586, 0.14193814, 0.3769186, 0.1720139, 0.3103293, 0.2821476, -0.25859421, -0.02295314, 0.13008107, -0.077299014, -0.1516008},
    {-0.2827132, 0.0801398, 0.1330375, -0.21119222, -0.03430096, 0.38109657, -0.031937722, -0.14763002, -0.3360963, -0.24667847, -0.01166356, -0.15693133, 0.31604427, 0.31746942, 0.12845375, -0.25411183, -0.25462624, -0.056320045, -0.19411007, -0.11955043, 0.1482381, 0.035804175, -0.2817446, -0.035353586, 0.12416251, 0.05273694, 0.3404133, 0.025815511, -0.24176058, 0.3287368, -0.12309846, 0.034199543},
    {-0.02130858, -0.047712334, -0.12324602, -0.2550667, -0.3841826, 0.11422409, 0.2373295, 0.12287311, 0.10642273, -0.0056899907, -0.003045388, 0.2782954, -0.13098678, -0.27166522, -0.11771591, -0.026468262, 0.08036374, 0.1003497, 0.35051054, 0.3233561, -0.018862722, -0.015420778, 0.37100756, 0.14227034, 0.04881913, -0.08882234, -0.26604903, -0.08008367, -0.1611109, 0.14452185, 0.24030818, -0.07972883},
    {0.034355048, 0.1479172, 0.19741842, -0.22289243, -0.16631445, -0.156979, -0.22040968, 0.2638975, 0.14988191, -0.17076758, -0.27409938, -0.0021737376, 0.35615945, -0.22654481, 0.40561116, -0.03661105, -0.05393458, -0.020353256, 0.115887254, 0.06195244, 0.2722936, 0.11768656, -0.13419263, -0.019415034, 0.3050388, -0.016734472, 0.07133299, -0.1876407, 0.22025222, -0.052857187, -0.17353185, -0.11433756},
    {0.27207565, -0.045404326, 0.031213054, -0.12609698, -0.01780733, 0.006052939, -0.03983542, 0.41760415, 0.35938197, 0.07624801, -0.12513302, 0.0013974598, -0.29144508, -0.3821482, -0.18567622, 8.282415e-05, 0.36822572, 0.46408004, -0.0077470643, -0.029023118, -0.3219059, 0.30787963, 0.15029731, -0.26995918, 0.08115717, -0.41179323, -0.05532921, 0.09490269, 0.05954403, -0.26696312, 0.10196614, -0.02001181},
    {-0.13036573, 0.11484533, 0.03747597, -0.15115362, -0.13937886, 0.15532415, -0.046040952, -0.12900734, 0.040682536, -0.21104535, 0.29344794, 0.04488241, -0.34719795, -0.33394858, -0.06290985, -0.006563949, 0.08126412, 0.18291366, 0.37185553, 0.15137163, -0.33649126, -0.23688258, 0.38048422, 0.325616, 0.06133186, 0.3477697, -0.1759625, 0.13203031, -0.25817445, 0.32299685, -0.30576423, -0.071864806},
    {0.081391096, -0.043196797, -0.0031949282, -0.124471426, -0.13980788, -0.09142041, 0.11323482, 0.04112518, -0.0155313015, 0.16896743, -0.059812248, 0.027323961, 0.03582412, -0.12895292, 0.018884718, -0.08325201, -0.113530815, -0.095964015, -0.24232101, 0.22544718, 0.007686913, -0.039854884, 0.23009616, -0.18243057, 0.047938704, 0.085847855, 0.041056752, 0.001722157, 0.24564528, -0.017740607, 0.1367476, 0.040576875},
    {0.4012241, 0.07782219, 0.2730408, -0.2582706, 0.09761747, 0.19214657, -0.3918186, 0.11919772, 0.27854666, -0.01519701, -0.36553562, -0.1577188, 0.4000095, -0.024487043, -0.088354625, 0.4262864, 0.08054594, 0.27303278, -0.12087093, -0.34030804, 0.12954372, -0.08296092, 0.112764545, -0.32546508, 0.09785409, 0.016245456, -0.025956614, -0.2383427, 0.057652157, -0.31210807, 0.082116686, -0.119990796},
    {0.15986423, 0.073951624, -0.28153366, 0.19216348, -0.29642144, -0.10615348, 0.025507145, 0.08049483, -0.20582283, 0.09175599, 0.16930112, 0.29351377, -0.050778184, 0.32167, 0.012010232, 0.110295214, 0.010719509, -0.10824768, 0.19475548, -0.004902867, -0.21786019, 0.21857281, 0.37967607, 0.098364815, -0.20765807, -0.1522178, -0.18811429, 0.1570765, -0.22649729, 0.18464376, 0.014181068, -0.1755391},
    {0.4003746, -0.41541913, 0.014582495, -0.17400727, -0.33531913, 0.12297552, -0.40404665, -0.2543939, 0.2162916, -0.005702726, -0.3941214, -0.02829791, 0.045876753, -0.20870793, -0.19615075, 0.12798199, 0.18771945, 0.28406152, 0.15674207, -0.085757434, -0.09807015, 0.32583046, 0.0027577796, -0.3728919, 0.040259693, 0.10710188, -0.09376848, -0.20115435, 0.1532071, -0.35859922, 0.36883506, -0.12812908},
    {0.08593897, 0.29872155, 0.011636069, -0.24740613, 0.2684427, 0.2011707, -0.07234075, 0.051291414, 0.044054426, -0.09313039, -0.10035099, 0.04520575, -0.0022558942, 0.20784785, 0.14481267, -0.3240123, 0.08961527, 0.012150459, -0.05174159, 0.2755166, 0.26104012, -0.2207723, 0.29814613, 0.41215196, 0.30621824, 0.08260045, 0.15850024, 0.20598309, -0.061770834, 0.017389124, 0.07925754, 0.2368704},
    {-0.057206035, -0.06820142, 0.12377882, -0.21512353, 0.16912812, 0.047299445, 0.18255699, 0.23580247, 0.043973565, 0.18999076, 0.23158062, 0.0056854486, -0.24672866, 0.1813342, -0.15214771, 0.012260437, 0.09507227, -0.08012271, 0.20346165, 0.0011475086, -0.22423702, 0.23399365, 0.0062441826, 0.2240346, -0.14243048, 0.17051166, -0.12549037, -0.026564837, 0.01634723, 0.11807555, -0.11179322, -0.18231648},
    {0.13874026, 0.011282028, -0.331956, -0.22638524, 0.050659634, -0.055309176, 0.35186595, -0.23584858, 0.037709743, -0.008820458, 0.133052, 0.13931336, -0.13009328, -0.31673416, -0.35947075, -0.07522452, 0.26179188, 0.20529021, 0.24101448, -0.05024598, -0.40331376, 0.20721008, 0.2126238, 0.3169471, -0.027475346, -0.18153259, 0.035497177, -0.11749049, -0.2417425, -0.17263117, 0.082218945, -0.122420914},
    {-0.1602489, 0.13583274, 0.001710057, -0.10410705, 0.30762956, 0.25675744, -0.062331278, 0.051591523, 0.11049854, -0.085860066, -0.01753227, -0.035038225, -0.01387757, 0.12983619, 0.10733142, -0.038610846, -0.1018815, 0.058526814, -0.11114433, -0.16757855, 0.23264453, -0.100539036, -0.008266636, 0.23110898, 0.1967051, 0.39370194, -0.0068129194, 0.13254373, -0.2651599, -0.044380147, -0.30427158, -0.24266878},
    {0.2419816, -0.10261327, 0.14495875, 0.14383136, -0.12171133, 0.12065414, -0.091357574, -0.00015103241, -0.026973985, -0.13224915, 0.28696686, -0.014732526, -0.059039462, -0.057037476, 0.028802516, 0.052662555, 0.122194245, 0.035475843, 0.37891427, 0.30228454, -0.1749631, 0.22098646, 0.30717054, 0.2625679, -0.083260864, 0.0068127722, -0.241618, -0.15876545, -0.09059063, 0.30878842, -0.12354002, -0.18989442},
    {0.21664548, -0.3358907, -0.0103797605, 0.014281028, -0.029975895, -0.17633402, -0.17139365, 0.18457134, 0.031231232, 0.15169376, -0.028905688, 0.14925589, -0.09137205, 0.02236489, -0.0708333, 0.0887835, -0.0029555785, 0.07554641, 0.035174858, 0.17068243, -0.24213539, 0.25835955, 0.33452517, -0.31075194, -0.39853552, -0.08845413, -0.08482077, 0.16950831, -0.08712701, -0.3672274, 0.23632726, 0.15342128},
    {0.13381165, -0.23129839, -0.12245411, -0.08987236, -0.013547182, -0.0017775297, -0.23620856, -0.035479426, 0.11527836, 0.18254262, 0.15850198, -0.14087635, -0.13494027, 0.08887589, 0.12535131, 0.2442202, 0.09333891, -0.2089858, 0.027506769, 0.004637778, 0.109924376, 0.22361547, 0.026139855, -0.20580429, -0.06469673, -0.23043549, -0.24706405, 0.073049664, 0.18020135, -0.06267285, 0.006427586, 0.22307473},
    {-0.3584535, -0.05075982, 0.39086998, -0.05637049, 0.050356656, -0.0065805647, 0.11318511, 0.36805475, -0.06464507, -0.16486925, 0.276903, -0.18422945, 0.19695051, 0.1386606, 0.3053884, -0.14567432, -0.11099384, -0.28467467, 0.08630363, 0.27081445, -0.113083325, 0.08688362, -0.18193713, 0.36315417, 0.37929624, -0.01896905, -0.06509019, -0.2623521, -0.03891793, -0.007743761, -0.25455686, -0.26086435},
    {-0.04348888, 0.29670778, -0.06705747, 0.21388252, 0.30361703, 0.11296377, -0.2387197, 0.19978923, -0.34449178, 0.0030072695, 0.085652165, -0.02086618, 0.14102925, 0.082005285, 0.05605453, 0.25160173, -0.19262326, -0.15001827, 0.028576788, 0.29242763, -0.09685483, -0.2740349, 0.15164617, 0.28610095, -0.012020858, 0.10384434, 0.2640292, -0.07855809, 0.20010963, 0.38214618, -0.26476339, 0.070296414},
    {-0.020803178, -0.21913669, 0.13240871, 0.03426711, 0.30560574, 0.25041735, -0.29785204, -0.232264, 0.10906911, 0.18571167, 0.0025453332, 0.031279676, 0.1514232, 0.09144593, -0.17531422, -0.1366771, 0.24545434, -0.088220336, -0.01183316, 0.045766845, 0.3172864, 0.0147001995, 0.0019482854, -0.113178745, -0.17246939, 0.11193112, 0.13522393, -0.22693942, 0.0500167, 0.26754132, -0.08971697, -0.15792459},
    {0.3344505, 0.11114828, -0.14073803, -0.16485158, 0.28537768, 0.2914012, 0.13093802, 0.277318, 0.37428045, 0.27680153, 0.039602093, -0.15300186, 0.34724417, 0.15088768, -0.121575676, 0.39548773, 0.18933164, 0.37456694, -0.12946455, -0.14001092, 0.34275228, 0.31117696, -0.06608535, -0.24017332, -0.20267875, -0.13702244, 0.22604576, -0.21033621, -0.254472, -0.044772595, 0.11270927, 0.22643898},
    {0.32597303, -0.37861297, -0.28637832, -0.13769485, 0.25289422, -0.3655171, -0.21529405, 0.31634814, 0.0051182024, 0.31126773, -0.3015768, -0.22242829, 0.010077512, -0.03709185, -0.16322426, 0.2563751, 0.1203727, 0.27153003, 0.08342786, 0.08476643, -0.1507002, -0.051469326, 0.022781773, -0.29954225, 0.009153818, 0.030511448, -0.037715036, 0.13307525, -0.14759964, -0.26947457, 0.18948266, -0.023062335},
};

float biases_3[32] = {0.0796187, 0.12448162, 0.0010789945, -0.024367185, 0.14687064, -0.1131603, 0.11745744, 0.18322283, 0.0824909, 0.038675252, -0.009231551, -0.06296679, 0.13633907, 0.109353274, 0.08136225, 0.14225505, 0.080155425, 0.15210582, -0.061683867, -0.07577913, 0.10272501, -0.103435524, -0.09628709, 0.108618446, 0.084908165, -0.060129408, 0.08746458, -0.033788502, -0.02598476, 0.08572598, -0.09280289, -0.018890098};

float weights_4[32][6] = {
    {0.32568613, -0.28686544, -0.07535148, 0.25448924, 0.1830167, -0.5738515},
    {-0.4285685, 0.3497806, 0.42589787, -0.36758906, -0.35758117, 0.05068859},
    {0.021632498, -0.51549065, 0.404734, 0.29747072, -0.53706026, -0.40597063},
    {-0.1796367, -0.17613663, 0.34694707, 0.304654, -0.16063331, -0.3788891},
    {-0.48130307, -0.44511947, -0.282192, -0.25602776, -0.12620988, -0.17164473},
    {0.037543975, -0.2268405, 0.055274576, 0.38751534, -0.08732704, 0.33784112},
    {-0.56139225, 0.5236945, -0.48950067, 0.12292365, -0.055761795, -0.4632161},
    {-0.41267362, 0.03268308, 0.41325, -0.06564058, 0.38181227, -0.33204204},
    {0.33193535, -0.3849137, -0.05584197, -0.23167369, 0.5195437, -0.0062498655},
    {0.44533792, -0.14852355, 0.19557224, 0.3741732, 0.24296021, -0.2736397},
    {-0.34917814, 0.37682846, -0.5501982, -0.27229562, -0.55687106, 0.3025312},
    {0.08589966, 0.08998958, -0.42351285, 0.012568765, -0.534437, -0.098019846},
    {-0.34934908, 0.09570441, 0.44397226, 0.5545605, 0.25762373, 0.004290781},
    {-0.19278212, -0.45233765, 0.10444561, 0.55001485, 0.104976796, 0.1793327},
    {-0.21120904, -0.015821403, 0.39936176, 0.09166314, -0.17116007, -0.2989626},
    {0.28252077, -0.5022276, -0.3681964, 0.2908653, 0.56680614, -0.33689114},
    {0.25408536, 0.12679996, -0.2551987, -0.37553248, 0.28798163, 0.39854383},
    {-0.037489686, 0.13568036, -0.5406668, -0.2469848, 0.25252002, -0.39036903},
    {0.5299611, 0.4346686, -0.41439176, -0.41098577, -0.32890776, -0.18407781},
    {0.16173282, 0.30517367, -0.17072837, -0.12929308, -0.46783552, 0.5210173},
    {-0.39445966, -0.25682756, 0.11520981, 0.16912009, -0.17005496, -0.2964065},
    {0.46213743, -0.119775765, -0.23683149, 0.043932468, -0.11027154, -0.1932934},
    {0.51653725, 0.17866626, -0.14457461, -0.47341537, -0.15805337, 0.47704333},
    {-0.07797428, 0.26121166, 0.5231856, -0.04563691, -0.334666, 0.3583797},
    {-0.033066057, -0.017355464, 0.42231274, -0.04349294, -0.49909914, -0.31309018},
    {-0.0019788132, -0.36992744, 0.39666593, 0.1754296, -0.42731887, 0.4889453},
    {-0.45712337, 0.043069914, 0.3460606, 0.35414043, -0.052539844, -0.13843797},
    {0.11331719, 0.045359645, 0.12364495, 0.28075355, 0.29014683, 0.01419628},
    {-0.17411561, 0.23906273, -0.13853867, -0.3158788, 0.09916882, -0.08329972},
    {-0.23536567, -0.3386067, 0.25215313, -0.54458904, -0.4453925, 0.24694477},
    {0.30727744, -0.11482311, 0.0069790324, 0.06935858, -0.021032479, -0.31842688},
    {-0.26121613, 0.023988625, 0.3290305, -0.19257051, -0.15237883, -0.3211979},
};

float biases_5[6] = {-0.13300021, 0.0027121312, -0.034684565, -0.02108065, 0.14957435, -0.048639726};

#endif // NEUROVERKONKERTOIMET_H
