#ifndef NEUROVERKONKERTOIMET_H
#define NEUROVERKONKERTOIMET_H

float weights_0[3][64] = {
    {0.36332718, -0.16028218, 0.3203065, -0.19685656, -0.42490798, 0.22857696, -0.25182635, 0.0015948415, 0.4155706, -0.07750494, 0.35782325, 0.42448676, 0.36876282, 0.32275835, 0.017752307, 0.31955928, 0.36650893, -0.24907635, -0.027642041, 0.1250934, 0.3765761, -0.14477749, -0.20139281, 0.35210913, 0.35109782, -0.30878443, -0.27836242, -0.13350189, 0.20999596, 0.41907614, -0.1606751, 0.05831355, -0.0077905655, 0.29972214, 0.27936184, -0.12146617, -0.017146735, -0.42930368, -0.22143888, 0.0058299303, -0.004229668, 0.31485495, -0.28214034, -0.28480232, 0.433285, -0.27066296, 0.16431277, -0.1393568, 0.017369807, 0.0679897, 0.011743844, 0.23732534, -0.13355826, 0.10090372, 0.21400492, 0.27674663, -0.23075372, 0.14952773, 0.331441, 0.025110155, 0.22382578, 0.1266696, 0.17321315, 0.33695713},
    {0.291449, -0.27860886, -0.38364208, -0.010915577, 0.2802683, 0.33247256, 0.0320048, -0.24626599, -0.01572957, -0.20145075, 0.060525347, 0.21360852, -0.30472115, -0.10224698, 0.14252286, -0.29965213, -0.0607607, -0.1869114, 0.26602238, 0.2422598, -0.24557605, 0.05540718, -0.2574171, -0.36629647, -0.026856853, 0.46098128, -0.18143573, -0.20446196, -0.36398432, -0.32325768, 0.46383244, -0.21782663, -0.1658949, -0.039202392, -0.11323041, 0.2895255, -0.3496529, 0.079439476, -0.24055514, -0.082702726, 0.34991995, 0.1187299, 0.26653734, -0.14351642, 0.21658494, 0.050971806, -0.16797298, 0.03495344, -0.2512079, 0.305812, -0.11643487, -0.2698256, -0.12847826, 0.33781913, 0.3384804, 0.29959226, -0.1478842, 0.03276569, 0.3596508, 0.26240414, -0.37005982, 0.34034795, 0.2851708, 0.14021747},
    {-0.020340748, 0.39433968, 0.37263882, -0.25842088, 0.41028765, -0.23771586, 0.3275771, -0.29616183, -0.17876579, 0.377013, -0.043558653, -0.08879447, 0.45895892, 0.37736166, 0.28495792, -0.051231176, 0.11992574, 0.153962, 0.23135978, -0.31418738, 0.3579381, 0.3310721, -0.1366249, 0.14284547, -0.14212705, 0.16174372, -0.03913933, 0.0058822334, -0.052022487, -0.06970508, 0.3137661, -0.1572785, -0.17240122, 0.12667347, 0.2762572, 0.39098462, 0.41859967, 0.4346235, -0.16268848, -0.16372915, -0.27199495, -0.07226575, 0.05980597, 0.046924055, -0.16753793, -0.18918213, 0.29196817, -0.051984295, -0.10280801, 0.06223331, -0.10178496, 0.28047878, 0.4164783, 0.033573605, 0.11929028, 0.096761025, 0.35093975, 0.32399547, -0.15235417, 0.42175895, 0.28725815, -0.19375919, -0.12902944, 0.09401274},
};

float biases_1[64] = {-0.1037693, 0.11659541, 0.08864267, 0.0, 0.08415536, 0.014392117, 0.09486425, 0.0, 0.10092099, -0.030494824, -0.01190843, 0.13718508, 0.014744938, -0.0953325, -0.098579794, 0.051419817, -0.033609938, -0.011496363, -0.06095836, 0.12730186, -0.027537711, 0.1198481, 0.0, 0.10206699, 0.08389385, 0.09224694, 0.0, 0.0, 0.10164575, 0.15160555, -0.026682846, 0.0, 0.0, 0.14068076, -0.064082414, -0.07039633, 0.06015614, 0.15295352, 0.0, 0.0, 0.088158846, 0.01972135, 0.11579284, 0.0, 0.0067172744, 0.0, 0.051933117, -0.0061162296, 0.0, 0.05674972, 0.0, 0.06940016, 0.13720208, 0.028533714, -0.05864873, 0.0076899286, 0.14592355, 0.06088895, -0.103546105, 0.018035257, 0.053213213, 0.02735684, -0.05320982, -0.122446254};

float weights_2[64][32] = {
    {-0.11779259, 0.014151893, 0.05273949, 0.16707005, 0.09466152, 0.20855962, -0.22034205, 0.28963524, -0.18246828, -0.10309947, -0.06875918, -0.07501936, 0.18776779, -0.17541377, 0.16920023, 0.10437159, 0.18282881, -0.16824989, 0.18560177, 0.37748632, 0.04617396, -0.2899622, 0.053198684, 0.1792314, -0.092376605, 0.042852532, 0.026653573, 0.22117482, 0.2771734, -0.020539662, 0.099724084, 0.18922403},
    {0.22180349, 0.092943095, -0.08114779, 0.10855109, -0.025032235, -0.24597481, 0.4054471, -0.29605865, 0.20774077, -0.32281372, -0.09636692, -0.119057424, 0.20882791, 0.36747745, 0.049968723, -0.3438934, -0.20619993, 0.38208687, -0.0298696, -0.37394845, -0.07410211, 0.22293292, 0.40168685, 0.3666239, -0.086712, -0.053610716, -0.29073313, -0.06971925, -0.085823365, -0.058721177, -0.13736671, 0.42133155},
    {0.13126542, 0.2993787, 0.051765654, 0.2357014, 0.12459971, -0.32947025, 0.22018065, -0.29790413, -0.10801296, 0.24945566, -0.31133646, -0.10437219, 0.103849344, 0.30270374, -0.09442537, -0.029763179, 0.18413676, 0.023614526, 0.39525867, -0.30352804, 0.062373362, -0.13993707, 0.1568163, 0.09109506, 0.2255151, 0.18798727, 0.10673613, 0.348051, 0.09964983, -0.09316102, 0.13819717, -0.03710579},
    {-0.17614025, 0.061937988, -0.051865578, -0.064147115, -0.097601175, -0.23002464, -0.13275981, -0.0788787, -0.24938351, -0.14661169, 0.1885969, -0.14774853, 0.08501375, 0.13163638, -0.010234833, -0.14461905, -0.06669378, 0.19205981, -0.09883869, -0.05381012, 0.025393605, -0.14779997, 0.14529526, 0.23714066, -0.17965913, -0.104959965, 0.18835878, 0.09002352, 0.088620365, -0.23701638, -0.12605411, 0.06854719},
    {0.025441779, -0.34268543, -0.024216477, 0.10448341, -0.20971547, -0.06920943, 0.23514372, -0.097676046, 0.00395599, -0.348786, 0.21113487, 0.21542077, 0.39674407, 0.12804045, -0.1807206, -0.35910937, -0.109390445, -0.23440045, 0.0062204096, 0.13226944, 0.005590164, 0.29970565, 0.23333724, 0.2563132, 0.388473, 0.30205983, -0.100489184, -0.021467118, 0.019019242, -0.034388643, -0.025790414, -0.19964436},
    {-0.32421684, 0.053333312, -0.24304277, -0.100363806, 0.19817969, 0.23361972, -0.11050475, 0.35839325, 0.07578437, 0.19540837, 0.109316885, -0.056330837, -0.014781111, -0.19670244, 0.2667599, -0.0602528, -0.24152714, -0.32149738, -0.02934855, 0.06362312, 0.35909942, -0.35537842, -0.06453952, 0.3382042, 0.11980279, -0.06580486, 0.36416128, -0.0016050815, 0.1274726, 0.12290422, 0.05866153, -0.31651947},
    {0.40348068, 0.18878926, 0.2451248, -0.030547827, 0.0028032926, 0.13262996, 0.30343407, -0.17836827, 0.06841478, -0.20584808, 0.08167045, 0.17100435, 0.327828, -0.16531102, -0.2697271, -0.23652054, 0.10376435, 0.240839, 0.16404106, -0.084487066, -0.09233628, 0.058142114, 0.10777754, -0.09693945, 0.342065, 0.1515704, -0.31502864, -0.29538184, 0.1290383, -0.2640547, 0.1169393, -0.064501256},
    {0.16533631, -0.19538623, 0.015942633, 0.12762111, 0.07644111, 0.08867288, -0.044906676, -0.23850757, -0.24507165, -0.07977563, 0.21479863, -0.08657253, -0.11608106, 0.10175282, -0.2118311, -0.101884305, 0.068398416, 0.22524637, -0.03341055, -0.017234266, -0.014953077, -0.11379373, -0.0836854, 0.050174594, 0.09825766, 0.2222498, -0.2330684, -0.074064374, 0.15087527, -0.19433618, -0.019191563, 0.15621805},
    {0.009390731, -0.05314289, 0.0493908, -0.30872062, 0.3273119, 0.05239394, -0.042501528, -0.1802562, -0.19700438, 0.22143017, 0.29124314, -0.086762026, -0.014312935, -0.09459374, 0.29450592, 0.12701835, 0.09136476, 0.3282589, 0.15513812, -0.20870785, 0.10129973, -0.37874073, -0.13687606, 0.051176455, -0.27726322, -0.2812802, -0.038224727, 0.13093042, -0.048108954, 0.24426873, 0.11847635, -0.07834463},
    {0.33275047, 0.00088321534, 0.17288013, -0.057560544, -0.11712375, -0.11902544, 0.13859798, -0.19054082, -0.37408704, -0.09256855, -0.18281546, 0.09524161, 0.3074192, 0.021631459, 0.17906635, -0.01368815, -0.13567896, 0.3097759, 0.3608542, 0.029317832, -0.3614555, -0.00738521, 0.3495306, 0.16992773, 0.09835272, 0.27239934, 0.011071654, -0.10615726, -0.100707285, -0.27163863, 0.062182065, 0.25819737},
    {-0.21625832, -0.08155132, 0.19510989, -0.10354753, 0.19183415, 0.14223179, 0.06674495, -0.10535744, -0.24851851, 0.23400377, -0.16164307, -0.028361907, -0.24257468, 0.08635668, 0.363835, 0.21852005, -0.27340072, 0.1764598, 0.31158707, 0.25198606, -0.00035661762, -0.09700044, -0.0375624, -0.040250704, -0.27069607, -0.01707779, 0.26795697, 0.06837996, 0.062415916, 0.10451042, -0.1887084, 0.082831405},
    {0.16174236, 0.25446388, 0.06487165, -0.060995456, 0.2490783, 0.27102524, -0.16512756, -0.12062251, 0.11649801, 0.28208956, 0.31857002, -0.16339603, 0.10574853, -0.010071385, 0.29002082, 0.2709461, -0.017044108, 0.039234053, 0.112714164, 0.19276728, 0.09009214, -0.16246785, -0.0512553, 0.16442885, -0.12833776, -0.008886215, 0.14155991, 0.32945043, -0.15048903, 0.09572471, -0.23318355, 0.09628561},
    {0.23604847, 0.16421565, 0.1530524, 0.34407133, 0.325407, -0.007405098, 0.10459104, -0.33352795, -0.10517458, 0.24607714, -0.28751802, -0.030280674, -0.17733942, -0.017993826, -0.08276199, -0.21171987, 0.13980663, 0.23094651, 0.3419481, 0.14868847, 0.11913213, 0.13989155, -0.110186905, -0.15940806, 0.2942372, 0.26214224, 0.070440456, 0.0034485061, -0.17943151, -0.35783586, 0.10087329, 0.35895413},
    {0.009087457, -0.21904291, 0.00035565058, -0.08955501, -0.03306519, 0.14203918, 0.31025282, -0.30268237, -0.06689025, -0.09352075, -0.15573232, -0.15048738, -0.28032753, 0.32926756, -0.029894428, 0.18610074, -0.10539034, 0.11048904, 0.0071082693, 0.34196356, 0.23546597, -0.29984722, 0.25324583, -0.28203046, 0.16444647, 0.25273925, 0.0068353196, 0.0065695215, 0.17306562, -0.10289, 0.18578492, 0.0056706984},
    {0.17869525, -0.08697649, -0.07865663, 0.3386985, 0.04282714, 0.25791562, 0.2621015, 0.22096534, -0.06947083, -0.10577385, -0.15943173, 0.09092358, -0.09208697, -0.08480754, -0.37744033, -0.12281143, -0.014645597, 0.20076081, 0.18986659, 0.31205225, -0.34273633, 0.20883481, 0.14259124, -0.168647, 0.20260936, 0.19462024, 0.28658676, 0.036075167, 0.20263709, 0.059055604, -0.06292704, -0.11641946},
    {-0.12898247, 0.10584371, -0.19588517, -0.3251613, 0.12670653, -0.30696756, -0.29671538, -0.1959372, 0.18800773, -0.11967593, -0.045471177, 0.15095006, -0.20333055, -0.08647897, -0.07263021, 0.09052831, 0.18575124, 0.16809396, 0.10695237, -0.14951909, 0.22785674, -0.24055062, -0.102395914, -0.16050568, 0.04025495, -0.20521782, 0.064495705, 0.020822639, 0.37685856, -0.3834493, -0.0923329, 0.38592803},
    {0.16692212, -0.03254282, 0.11005876, 0.10898245, 0.2661832, -0.05550545, -0.33357412, -0.14814281, -0.13447793, -0.10480599, -0.22034463, 0.17783895, -0.06494113, 0.28893164, -0.08207736, 0.2631259, -0.009116447, 0.33580095, 0.28767505, 0.051785033, 0.12631685, -0.22925034, 0.11474596, -0.12099771, 0.09433831, 0.029307783, 0.31758988, -0.04907513, 0.3076444, -0.123217426, -0.053546935, 0.36667368},
    {0.19475617, 0.06586552, -0.047059953, -0.049189508, 0.029319048, 0.19751742, -0.19604334, -0.10170884, 0.13675554, 0.1820629, -0.13996825, -0.054520905, 0.1704777, 0.23784037, -0.037938662, 0.056835413, -0.15336071, 0.17990011, -0.02762535, 0.16952568, -0.23094478, -0.042776644, -0.19049092, 0.16383603, -0.12597355, -0.14176245, 0.0666309, -0.0024373669, 0.2264089, 0.1594671, 0.21553543, 0.086541146},
    {-0.06432285, -0.38193226, -0.2029108, 0.4026953, 0.16193716, 0.2769124, -0.07477772, 0.18146957, -0.040358707, -0.1293011, 0.22791916, -0.24467288, 0.3396131, -0.24983373, 0.061546836, -0.044616465, 0.20632277, -0.09026633, 0.21220934, 0.22954516, -0.14443897, 0.037118856, 0.16650131, 0.19444941, 0.3569207, 0.12247957, 0.23775022, -0.33458516, -0.022142094, -0.0900608, 0.13385949, -0.043503474},
    {-0.21985014, -0.18587042, 0.032761943, -0.4316182, -0.21536826, 0.21879464, -0.21028648, 0.37398148, -0.069318585, 0.08443281, 0.29624376, -0.21351376, 0.021828007, 0.1014057, 0.41393325, 0.36158887, -0.1154437, -0.20158073, -0.24925141, -0.21811968, 0.39186975, -0.1494055, -0.3763778, -0.057879854, -0.23564306, -0.19609404, 0.18598208, 0.028842632, -0.23361738, 0.3380916, -0.27275074, -0.026321022},
    {0.047879387, 0.23368172, 0.044499937, 0.17128451, -0.04527652, -0.13736965, -0.09946491, -0.33643374, -0.2048501, 0.21546833, -0.35396135, -0.19729196, -0.2069414, 0.17726617, -0.38678303, -0.14490604, -0.04803392, 0.048924327, 0.30471247, -0.11629783, 0.08635146, 0.0047464855, 0.13800497, -0.092242554, -0.15683098, 0.36081818, 0.13332155, 0.3074286, 0.25255898, -0.16569923, -0.25802678, 0.009189072},
    {0.32234406, 0.19852267, -0.095884345, 0.40317962, -0.11272284, 0.10818091, 0.2989697, -0.017274152, 0.38378185, -0.10714506, 0.2833628, -0.099637784, 0.07991685, 0.05631027, 0.04846527, -0.24485406, -0.1391908, 0.17335786, 0.31149778, 0.04879349, -0.10694335, 0.14749415, 0.0687246, -0.003695075, 0.25544882, 0.21753196, 0.009970611, 0.026214987, 0.07556927, -0.087067746, 0.18087149, -0.058782052},
    {-0.17262614, 0.22673666, 0.018713474, 0.14727736, 0.24095845, 0.06390071, 0.1794489, 0.18609208, -0.11209124, -0.2461474, 0.24760872, 0.17123371, 0.02958858, 0.14343071, -0.10806191, -0.091312766, 0.11453587, -0.20820934, -0.22053808, -0.120218456, -0.12165266, -0.24508482, -0.03100121, -0.09058601, 0.055377543, 0.23314834, -0.20125645, 0.119452894, 0.016548157, 0.17060739, 0.22419566, 0.17311496},
    {0.18194015, 0.098926954, -0.18785547, 0.0449402, 0.09762233, -0.14797594, 0.027118051, -0.09337274, -0.3415878, 0.3333672, -0.38705096, 0.20561767, -0.054718066, 0.18747534, -0.24432948, 0.03450859, 0.1934248, 0.019143624, 0.04801698, -0.0326288, 0.36638707, -0.34637806, -0.15882649, 0.014593174, -0.22976018, -0.2401857, -0.042218287, 0.25295818, 0.0012548768, -0.25124064, 0.14974694, 0.35447893},
    {0.046409223, -0.13300978, -0.20087378, -0.063383274, 0.08896142, -0.12078218, -0.39427358, -0.040559083, 0.010582367, -0.07037091, -0.10327657, 0.18469156, 0.14005339, 0.2942928, -0.047182217, 0.35258302, 0.034764156, -0.1084514, -0.019044047, 0.09244715, -0.02438207, -0.42781734, -0.28596807, -0.03731986, -0.19507222, -0.20934445, 0.150745, 0.20137243, -0.029278332, 0.22463796, 0.18632141, 0.37717703},
    {0.092977725, -0.37621713, -0.10729253, -0.018061116, -0.11798869, -0.033237543, 0.17405036, 0.28342003, 0.23593432, -0.204626, 0.16053475, 0.01812524, 0.2954881, -0.039267298, 0.076449476, 0.23206794, -0.17083342, -0.2075925, -0.3958172, 0.019724062, -0.3539261, 0.105315596, 0.34590963, 0.124822855, 0.35593134, 0.20148748, 0.2716023, -0.050718658, -0.13200767, -0.046365947, -0.029467124, -0.21117724},
    {0.24345565, 0.006144762, -0.06545222, 0.24014819, 0.187222, 0.18603265, 0.00807631, 0.009506583, 0.19500697, 0.24318278, -0.21643597, -0.22139615, -0.16927642, -0.036277533, 0.21221882, 0.08657223, -0.16827631, -0.23834294, -0.05401838, 0.17002922, -0.06989223, -0.2304768, -0.23863119, 0.087709725, 0.17882025, 0.1922983, -0.09414631, 0.23065197, -0.215994, 0.1642152, 0.05366069, 0.18079048},
    {0.07424891, -0.13594127, -0.24422193, 0.20589471, 0.09653592, 0.23104823, 0.19162518, -0.21061164, -0.22805351, 0.033083916, -0.24691069, 0.1978944, -0.1706118, -0.19248176, 0.02762103, 0.22939098, -0.08820176, 0.058704257, 0.15052158, 0.20844936, 0.1403982, -0.20359391, 0.06906986, 0.12649822, -0.08706659, -0.18651658, -0.23843133, -0.053939104, 0.18416691, 0.008323669, -0.19509035, -0.14084524},
    {0.3736525, 0.03623911, -0.16798101, -0.26325148, 0.09404613, -0.19804637, -0.399343, 0.06271963, 0.20313692, -0.124166206, -0.0095073385, 0.07524917, 0.011656906, 0.019600606, -0.081242055, -0.34779117, 0.19877402, 0.03319035, 0.19075781, 0.08900282, 0.056488346, -0.18188044, -0.3180313, -0.24101825, -0.072027385, -0.053283576, -0.28926525, 0.36959133, -0.052801877, -0.3388494, 0.22413212, 0.15675128},
    {0.124371625, 0.15178357, -0.0572611, -0.2257322, 0.18799338, -0.03797461, 0.019015934, 0.03131857, -0.25283524, 0.4355548, -0.14990956, 0.12193938, -0.21203546, 0.07261982, 0.22146875, -0.14030959, -0.030560162, -0.023265103, 0.36005506, -0.21117744, 0.004686353, -0.2065192, 0.03348416, -0.12708643, -0.2270225, -0.17868729, -0.17257828, 0.40570375, -0.10150144, -0.28576076, 0.07515627, 0.09130507},
    {0.3356497, -0.30310717, -0.16240059, 0.2386379, -0.15373634, 0.21488574, 0.177756, -0.04352405, 0.36716136, -0.0034160514, 0.17064361, -0.23414609, 0.29075885, -0.30727327, 0.011676131, 0.09208216, 0.096514285, -0.3790246, -0.08039745, 0.057159122, -0.36491224, 0.2397588, 0.28730342, -0.08020004, 0.07946096, 0.18972456, 0.20591415, -0.16372876, 0.30484998, -0.10847662, -0.1001258, 0.12810694},
    {0.11379063, -0.1473217, 0.092372835, -0.24598306, 0.24430186, -0.15728682, -0.01162374, -0.239914, -0.1297139, 0.059700012, 0.13353556, -0.19167817, 0.09002775, 0.22699177, 0.05251062, -0.232853, 0.078370094, -0.23999977, 0.10301733, -0.18811911, 0.027960658, 0.059146106, -0.077964544, 0.090343356, 0.23538572, 0.10379517, 0.08633965, -0.14587295, -0.07432079, 0.051701248, -0.14922136, 0.028342843},
    {-0.025169969, -0.08804566, 0.106269896, 0.07653022, 0.12884808, 0.025479376, 0.014000535, 0.027720451, -0.104423285, 0.22374827, 0.11644131, 0.067058206, -0.050335944, 0.15128648, -0.21409172, 0.007765174, 0.0017526746, 0.06553513, 0.15537602, 0.030777574, 0.20887268, -0.16637623, 0.17481923, -0.049380124, 0.17601776, -0.14270657, 0.22231245, 0.21010482, -0.12600559, 0.12815219, 0.08130157, 0.2406891},
    {0.09713176, 0.020545624, -0.26658568, 0.011220277, 0.14717169, 0.018144684, -0.12240683, 0.15134068, 0.15145026, 0.13906257, 0.156683, -0.24108349, -0.07501866, -0.07952416, 0.03136804, 0.08549212, -0.0708294, 0.37316778, 0.10797971, 0.22781026, 0.2751501, -0.15175365, 0.07276423, 0.1450579, 0.05472546, -0.07782534, -0.098530814, 0.25317097, -0.10943617, 0.016731847, -0.048189458, -0.029884547},
    {0.201408, -0.18476966, -0.12002768, -0.072984196, -0.09869468, 0.08540436, 0.29154024, -0.22361413, 0.040743712, 0.3348889, -0.10555462, -0.04799345, -0.21291271, 0.16902226, -0.23748362, -0.14160095, 0.122637525, 0.036954455, 0.15426897, 0.1906718, 0.115361005, -0.28730506, -0.0523744, 0.096251614, -0.07927543, 0.25768912, 0.12145494, 0.25529003, 0.021507073, -0.24982625, -0.23276481, 0.34036496},
    {0.35904968, -0.1522505, 0.04103361, 0.22089669, -0.00566277, -0.08683363, 0.3143633, 0.104428604, -0.08629962, -0.1012961, -0.10570442, -0.16793488, 0.07070285, -0.27619568, -0.18374284, -0.07625365, -0.034202587, -0.26938385, 0.18764268, 0.33236468, -0.2541594, 0.16093868, 0.027450101, 0.17004126, 0.15169077, 0.41267788, -0.05936624, -0.30738285, 0.22190571, 0.03307576, -0.18881075, -0.15557897},
    {0.3249467, 0.08686681, 0.25243503, 0.17890857, -0.37309992, -0.057053052, 0.24783169, 0.027096134, -0.09794667, -0.15651672, -0.19547161, 0.10886429, -0.03284792, 0.02768215, -0.035369936, -0.07637186, 0.18277448, 0.44753984, 0.37871477, -0.41019714, 0.24573638, 0.108588114, 0.019956086, 0.13973667, -0.20565619, -0.14443846, -0.077014245, 0.007580366, -0.26705977, 0.0030952871, -0.11738301, 0.3326442},
    {-0.02174489, -0.07176391, -0.13084954, 0.026425019, -0.15452905, -0.0006890736, -0.050237574, -0.27330297, 0.39563543, -0.38970348, 0.33734074, -0.17177303, 0.3819296, -0.0015460195, -0.3099457, 0.023834174, -0.23441909, -0.17228182, 0.046285704, -0.24400151, -0.010440212, 0.39121196, 0.0023658203, 0.21064553, 0.28958043, 0.35822675, -0.06841145, -0.35608736, -0.22879744, -0.26989797, -0.22503053, -0.022324512},
    {0.20172179, -0.069033384, 0.22012174, 0.07641029, -0.19022751, 0.031038642, -0.2116847, 0.20118964, 0.1667952, -0.19411826, 0.049222708, 0.088647425, -0.20348316, 0.19350481, -0.17914575, 0.06152183, 0.21460807, -0.08397794, 0.2400294, 0.1457243, 0.076773286, 0.18283951, 0.034418344, -0.18915892, -0.21355414, 0.18494803, 0.17785937, 0.23488212, -0.16947562, 0.20095986, -0.1914683, -0.04872203},
    {-0.07142967, 0.17489111, 0.061456442, -0.16284078, 0.033920765, -0.013818502, -0.2130692, 0.10916281, -0.06574988, -0.21922624, -0.20033133, 0.096247196, 0.093788564, -0.23736209, -0.16703582, 0.006768465, 0.1355995, 0.042945266, -0.24007124, -0.21480888, 0.09795892, -0.00017380714, -0.018169522, -0.09908432, -0.12090129, 0.2430566, 0.09681082, -0.056990743, -0.0282287, 0.24032217, 0.06668365, 0.20602012},
    {-0.17852925, -0.18207322, 0.041833427, -0.12351706, 0.013136523, 0.031368718, -0.004754983, 0.32848305, 0.03108953, 0.052932568, 0.256055, -0.004384686, 0.38627347, -0.2518151, 0.38619968, 0.22421072, 0.10379122, -0.009442147, -0.38241488, 0.03936347, 0.11246995, 0.041422833, 0.2777858, 0.36872512, -0.23812535, -0.2159908, 0.23013376, -0.17136227, -0.10664408, 0.10012949, -0.08236989, -0.10092102},
    {0.13321115, 0.13676926, 0.13865966, 0.16898155, 0.16067868, 0.2700851, -0.26011235, -0.09652867, -0.24420139, 0.22481081, 0.28505638, -0.24306785, 0.047785543, -0.09205643, 0.37557527, 0.26764652, -0.22724612, -0.049619183, 0.2582176, 0.19175282, 0.11800091, -0.20108108, -0.06872143, -0.08092806, -0.11067969, 0.23342443, -0.07000338, -0.05618139, 0.021678107, 0.11329876, -0.12117737, -0.05635911},
    {-0.0035398332, 0.15786262, -0.031115448, -0.03803727, -0.3082591, 0.30508104, -0.05279254, 0.16391283, 0.14493017, -0.32875594, 0.33735514, 0.09511611, 0.35203293, -0.40397623, -0.041129425, -0.22539434, -0.15689474, 0.014517965, -0.06497726, 0.35479635, -0.19390622, 0.41095307, 0.32774925, -0.107575476, 0.11694918, 0.041748047, -0.26003155, -0.06677891, 0.23317614, 0.34798467, -0.08684345, -0.19512017},
    {0.11535394, 0.14473331, 0.02047056, -0.06495702, -0.10532892, 0.16813654, -0.24214596, 0.23443508, -0.056359112, 0.094902754, 0.056728244, 0.025749683, -0.19272101, 0.13206327, -0.24871397, -0.044533253, -0.16937584, 0.01268667, 0.08805251, -0.004072368, 0.22622341, 0.05909878, -0.038485944, -0.07314557, -0.1598633, 0.19108456, 0.23591393, -0.24504352, -0.20505893, -0.17492366, -0.038983464, 0.14348036},
    {-0.26307744, 0.007473722, 0.09224469, -0.1589601, 0.36999047, 0.37592465, -0.06535707, 0.24924567, -0.0103687905, 0.13749863, -0.026231173, -0.23113252, 0.056567293, 0.037660375, 0.07492364, 0.29572096, -0.21504124, 0.16651197, 0.117368184, 0.10520462, 0.31512326, -0.14391881, -0.15092576, 0.10099021, -0.20618118, 0.0052100634, 0.24995476, 0.21598318, 0.045532756, 0.22728835, -0.22953863, 0.015924014},
    {-0.22664535, -0.07911682, -0.20602179, -0.120529056, 0.10821229, 0.15963233, 0.20103413, -0.13203585, -0.16091454, 0.24965888, -0.14971, -0.15895623, 0.13028848, 0.10219991, 0.09578097, 0.13193458, -0.20540577, 0.121687174, -0.21682358, 0.21814221, -0.11382657, -0.2432034, -0.11372596, 0.23037827, 0.053768873, 0.04519087, 0.03599739, -0.21108031, -0.09429532, -0.19430488, -0.08771056, -0.107093036},
    {0.34859332, 0.08277646, -0.0060243555, 0.100806765, 0.23862842, -0.06565453, 0.34096357, 0.021417957, 0.050105732, 0.14086139, -0.22684754, -0.11223858, 0.08292317, 0.13451725, -0.08155957, -0.21901429, 0.17253804, 0.43426773, 0.1398733, 0.13122152, 0.10819831, 0.29366472, 0.0689311, 0.06615562, 0.27645862, 0.12599272, 0.16164795, 0.2693955, 0.15133166, -0.12757805, -0.06464923, 0.35473177},
    {0.065823115, 0.13963038, 0.20626807, 0.019461632, -0.04474003, -0.1977495, 0.0140319085, 0.21638736, -0.061851375, -0.11273018, -0.04730518, 0.023498237, 0.16164882, 0.19766173, 0.16517209, 0.17993325, -0.17626137, -0.03502679, -0.21358734, -0.116969064, 0.21191153, 0.17205356, -0.08977771, -0.06547863, 0.06030258, 0.09228455, -0.13261637, -0.2218117, -0.21418263, 0.18567348, 0.10441014, 0.24889855},
    {-0.036884308, 0.016917765, 0.16730893, -0.2258293, -0.12337601, -0.084920585, -0.10036802, 0.15489882, 0.22166854, -0.2214132, -0.12815744, 0.23953891, -0.1462332, -0.11652398, -0.23087221, -0.20917124, 0.20677626, -0.09650898, 0.22306752, 0.1825723, -0.20606375, 0.038838267, -0.09809059, 0.23630416, -0.063827634, -0.24622154, -0.19694775, 0.21204978, -0.06144297, -0.21661568, 0.015338063, -0.19238353},
    {0.12271512, -0.041830536, -0.18583857, 0.07727654, -0.05802722, 0.1930162, 0.097270854, 0.043604255, 0.18147182, 0.24110995, 0.4136479, 0.10907832, 0.33698058, -0.00023291205, -0.09732978, 0.3261841, -0.06480951, 0.1352995, -0.08244788, 0.051848765, -0.1200478, -0.16350271, 0.19116086, 0.25451794, -0.13647823, 0.13876048, -0.104965545, -0.20290157, 0.2466156, 0.30523178, 0.112698264, 0.12217803},
    {0.17446375, -0.13998634, -0.00024080276, 0.20893729, -0.119238555, -0.080426455, -0.2098009, 0.15752637, 0.20274323, 0.18822426, -0.139512, 0.003255844, 0.2252953, 0.04128772, -0.06289947, -0.16691726, 0.08458203, -0.18770152, 0.044777155, -0.22545338, 0.21030313, -0.181485, -0.05079794, -0.18249148, 0.16010427, 0.05986905, 0.022780359, -0.15694928, 0.072681665, 0.23069656, 0.06190723, 0.022058427},
    {0.21102022, 0.16932793, 0.0046020458, -0.033169925, 0.28274205, -0.08379495, -0.12815715, -0.32757422, 0.0106892, 0.31508833, -0.058703635, 0.041224796, 0.09389519, 0.3934086, 0.061985925, -0.32650444, 0.15455459, 0.25258416, 0.19486816, -0.025906567, 0.14870468, -0.020093538, 0.1841585, -0.28257176, -0.00047933933, 0.06502222, 0.014129903, 0.27678186, 0.2029258, -0.35537234, 0.15390551, 0.41706455},
    {0.3291526, 0.25493023, 0.06881134, 0.3971276, 0.13750918, 0.05985131, 0.2778249, -0.3115219, 0.021235157, -0.10637833, -0.15885213, -0.25641283, 0.19930468, 0.10634485, -0.254223, -0.24954267, -0.27771276, 0.22264245, -0.0047485707, -0.063718416, 0.17519207, 0.19863416, 0.12346735, -0.01732804, 0.29653856, 0.32994777, -0.25740105, 0.005883943, -0.20381604, -0.2948103, -0.2219821, 0.0049508363},
    {-0.064486586, 0.009829666, -0.2122436, 0.24723394, 0.28415245, 0.40666327, 0.0642861, 0.35541874, 0.23021665, 0.14427848, 0.25482252, -0.2520233, 0.036445793, -0.028749457, 0.31993005, 0.259838, -0.21268708, -0.17960483, -0.20887488, 0.15462317, -0.03536818, 0.13268356, 0.29292324, -0.075605944, 0.23177488, 0.16000187, 0.3263399, 0.033395667, 0.046321686, 0.32601726, -0.032034487, 0.0020954432},
    {-0.029461818, -0.22904035, 0.15077463, 0.1927295, 0.06016355, -0.01881199, -0.15511951, 0.27101883, 0.18928573, 0.14091438, -0.009812853, 0.117716685, 0.07764413, -0.021760132, -0.13287875, 0.19653569, -0.26272595, 0.090281665, -0.18079594, 0.347913, -0.083306454, 0.072501644, 0.03575957, 0.056826014, 0.23179153, 0.028312977, 0.21537054, 0.10289776, 0.0761589, 0.32734764, 0.14784284, -0.06550392},
    {0.13193996, -0.20744662, -0.2759212, -0.028212901, 0.025162274, -0.036202982, -0.114989884, 0.19458008, 0.20311375, 0.3039571, 0.3486722, -0.010761376, 0.13260473, 0.17092024, -0.046798427, 0.30192214, -0.13324104, -0.14054078, -0.055958673, 0.33788705, 0.20173779, -0.20331359, 0.30043983, 0.2092101, 0.2584397, -0.09236617, 0.16619287, -0.055347368, 0.3149457, -0.06935712, -0.0412343, -0.04908407},
    {0.26044738, 0.048197016, -0.120013766, 0.07650772, -0.18638684, -0.31417975, 0.047859326, -0.36111742, 0.3935161, -0.3369953, 0.28975216, 0.13121045, 0.30336034, 0.338835, 0.05619215, -0.27615443, -0.24763298, 0.39198592, 0.09867975, -0.0033800683, -0.17443743, 0.33600065, -0.037568387, 0.08340691, -0.03898443, 0.3900124, -0.27480945, -0.20334244, -0.27499214, -0.2097281, -0.050904777, 0.04840458},
    {-0.09978839, 0.18153721, -0.07919267, -0.015905876, 0.33437303, -0.0210342, 0.11975283, -0.14832059, 0.18794675, 0.017888924, 0.060353845, -0.14615382, 0.022794, 0.04028062, -0.16457349, 0.19666989, -0.20868453, 0.22347486, -0.041315675, -0.13720149, -0.08252973, -0.05886387, -0.016753247, 0.020974513, 0.34707928, 0.14286557, -0.069710635, 0.1280041, -0.10359122, 0.060734782, -0.061733987, -0.07270066},
    {-0.318177, -0.14516585, -0.25204515, 0.03465955, -0.023013929, 0.36676505, -0.32738465, 0.28137496, 0.106499456, 0.11464422, -0.08008408, -0.14255792, 0.14287665, -0.1873855, 0.28441018, 0.10613162, 0.16944413, 0.04231356, -0.20617405, 0.21517044, -0.09187831, -0.33290568, 0.003996025, 0.11679252, -0.27445656, 0.26879632, 0.28987482, -0.016062494, 0.23285688, 0.29863426, 0.11913018, 0.13649903},
    {0.28624418, -0.16694525, -0.08085138, 0.37710655, 0.17375343, 0.3075603, -0.014139632, 0.15044515, 0.2056114, -0.07865594, 0.10896797, -0.24703592, 0.11456284, 0.204667, -0.022616627, -0.107188255, -0.2252833, -0.09080384, 0.2683397, -0.12083263, -0.22563206, 0.27102333, 0.074253894, 0.03377951, 0.27866396, 0.04547518, 0.15867838, -0.046475675, -0.076067284, 0.29851928, -0.04233207, 0.04164835},
    {0.26083136, -0.09997897, 0.09582753, 0.27847576, 0.39591202, -0.0050704726, 0.00766738, -0.382599, 0.010769091, 0.03518999, -0.2108033, 0.118232064, -0.10881132, 0.23964234, 0.049936235, -0.12265481, 0.20303088, 0.30101097, 0.072434545, -0.1519853, 0.35852742, -0.06954155, -0.101307094, 0.08617817, -0.051809575, -0.113085985, -0.24905974, -0.029739592, -0.15226491, -0.2155643, 0.20689557, -0.061840024},
    {-0.18189931, -0.1497163, -0.19820213, -0.08953428, 0.031462334, 0.35410404, -0.34124175, 0.27281377, -0.20128971, 0.16297929, 0.39100763, 0.17493273, 0.24613607, 0.0062555266, 0.08968815, 0.16466253, 0.093638316, 0.035236526, -0.3488091, 0.37168604, 0.24212272, -0.018652514, 0.0914386, -0.12108881, 0.119178504, 0.06239679, 0.14466797, -0.14008234, 0.28099975, 0.10740858, -0.24016987, -0.12793115},
    {-0.19243443, -0.33872798, -0.065799184, -0.16420746, 0.045663044, 0.4007636, -0.083466426, -0.08002052, -0.007503874, 0.12966828, -0.04679531, 0.13128549, 0.19379625, -0.021517467, -0.00052976026, -0.0068213264, -0.13211267, -0.30079767, -0.0026403351, -0.106884405, -0.082125686, -0.12261868, -0.13680181, 0.2635447, 0.11705291, -0.029699253, 0.009304009, 0.018573716, 0.25895047, 0.38295233, -0.19108526, -0.29800162},
    {-0.192552, -0.14302437, 0.1759586, -0.0795648, -0.06765189, 0.13791928, -0.046044685, 0.25046661, -0.10620313, -0.06888267, -0.035625838, -0.038939264, -0.28982326, 0.13659044, -0.074545346, 0.12698695, -0.03881888, -0.10612439, -0.05362528, 0.355682, 0.084248275, -0.3092745, 0.05847903, 0.083043106, -0.08179687, 0.07050347, 0.21743134, 0.10328692, 0.086399175, -0.041821454, 0.18760942, -0.051081173},
};

float biases_3[32] = {0.15134235, 0.14928962, -0.03457493, -0.027673742, -0.043067995, -0.022071477, 0.022591773, 0.04116663, 0.14232254, -0.024850583, 0.14721328, -0.023327455, 0.093051754, 0.0748555, 0.09130175, 0.06345292, -0.03540962, 0.07443155, 0.06622747, -0.07765535, 0.17204309, 0.143589, -0.06657759, -0.020640971, 0.07188982, -0.07457443, -0.08337312, 0.12295253, -0.071092874, 0.10335194, 0.0018934368, 0.075745925};

float weights_4[32][6] = {
    {0.005715057, -0.0958135, -0.46916115, -0.4633007, 0.0035176063, -0.21247393},
    {-0.199629, 0.13063157, 0.10521847, -0.5422846, 0.4671532, 0.10882446},
    {0.07631374, 0.19485469, 0.19022764, -0.18553722, -0.31199086, -0.16757564},
    {0.54317814, 0.10787086, -0.21824224, -0.13108043, -0.1208612, 0.23893765},
    {-0.04091032, -0.4933476, -0.08233018, 0.35269725, 0.17537649, 0.11937303},
    {-0.07763921, 0.13694054, 0.2775561, 0.2656802, -0.42703095, 0.36840203},
    {0.3529686, 0.21615054, -0.50564826, 0.0237741, -0.53471917, -0.53331494},
    {0.109918766, -0.34917736, 0.33145776, -0.42961082, 0.068467006, 0.24370848},
    {-0.052880473, 0.5075983, -0.029988697, -0.16437787, 0.093410365, 0.23284528},
    {-0.3151054, -0.4394793, -0.1503602, 0.4495064, -0.007608759, -0.24638547},
    {-0.49233404, 0.36971742, 0.3915689, -0.34922433, -0.29730102, 0.09365024},
    {0.17833133, -0.33284438, 0.14376733, 0.07456671, -0.34452754, 0.35773942},
    {-0.114807375, 0.06470333, 0.3048789, -0.56654143, -0.44801545, -0.037188668},
    {0.4614827, -0.32468572, 0.029395426, 0.09087508, 0.44740012, -0.49939322},
    {-0.20736979, -0.49471447, 0.5348387, 0.012639521, -0.24009053, -0.4253056},
    {-0.1243894, -0.54957277, 0.5574836, 0.39879858, -0.288846, 0.018671721},
    {-0.23359028, -0.08506626, -0.020846596, -0.18330364, -0.18287757, 0.24417937},
    {0.3345845, -0.34072465, -0.53217334, -0.031603273, 0.44066656, -0.14462975},
    {0.44876274, -0.125874, -0.12257953, 0.17451568, 0.5041737, 0.1693595},
    {-0.40874326, -0.28102764, -0.29323387, -0.0976576, -0.491684, 0.08732037},
    {-0.1727869, -0.19036165, 0.28852433, 0.02910902, 0.47511122, -0.35843462},
    {-0.1190284, 0.42775735, -0.0582503, 0.07001406, -0.3357797, -0.35753784},
    {0.2574818, 0.2812625, -0.050752822, -0.03585124, -0.30736005, 0.15069127},
    {0.21860199, 0.19131479, 0.39664602, 0.040754892, -0.13130502, 0.10386123},
    {0.03195889, 0.41018274, -0.47754502, 0.050848827, -0.033407554, 0.26866278},
    {0.305051, 0.2803065, -0.52130497, 0.20797853, -0.2596671, 0.32705662},
    {-0.24881317, -0.40771282, -0.054674797, 0.43724662, -0.25907862, 0.44614887},
    {-0.048031524, -0.56113505, -0.14564145, 0.4441268, 0.42723185, -0.46188217},
    {-0.4288116, -0.13137929, -0.32014844, 0.41735923, -0.104275666, 0.39896953},
    {-0.021554058, -0.32173258, 0.49328074, -0.34417677, -0.2667487, 0.2184795},
    {-0.14337745, 0.2982032, -0.35935962, -0.23351738, 0.1459156, 0.21119036},
    {0.3035085, -0.18060796, -0.28678212, 0.2659115, 0.32933387, -0.49068096},
};

float biases_5[6] = {-0.09824674, 0.09707912, 0.06711479, -0.12368645, 0.12583601, -0.028573737};

#endif // NEUROVERKONKERTOIMET_H
